
\data\
ngram 1=373
ngram 2=1164
ngram 3=84

\1-grams:
-1.279981	</s>
-99	<s>	-0.3657237
-1.762968	A	-0.1538174
-2.88422	ABLE	-0.07393356
-2.835195	ABOUT	-0.07393356
-2.835195	ABSOLUTELY	-0.07393356
-2.88422	ACQUAINTED	-0.07393356
-2.88422	ACROSS	-0.07393356
-2.575959	ACTUALLY	-0.07393357
-2.835195	AFTER	-0.07393356
-2.88422	AGAIN	-0.07393356
-2.88422	AGE	-0.07393356
-2.88422	AGO	-0.07393356
-2.88422	AGREED	-0.07393356
-2.88422	AHEAD	-0.07393356
-2.281318	ALL	-0.1054858
-2.88422	ALLEVIATE	-0.07393356
-2.835195	ALSO	-0.07393356
-2.88422	ALWAYS	-0.07393356
-2.88422	ALZHEIMER'S	-0.07393356
-2.745754	AN	-0.07393356
-1.587527	AND	-0.2054396
-2.88422	ANY	-0.07393356
-2.88422	ANYMORE	-0.07393356
-2.88422	ANYTHING	-0.07393356
-2.835195	APARTMENT	-0.07393357
-2.88422	AREAS	-0.07393356
-2.281318	AS	-0.07393357
-2.575959	AT	-0.07393357
-2.88422	AVAILABLE	-0.07393356
-2.745754	AWARE	-0.07393356
-2.835195	AWAY	-0.07393356
-2.88422	BACK	-0.07393356
-2.215292	BE	-0.09205939
-2.359214	BECAUSE	-0.1109748
-2.88422	BECOME	-0.07393356
-2.835195	BEEN	-0.07393357
-2.745754	BIG	-0.07393356
-2.88422	BIGGEST	-0.07393356
-2.88422	BROTHER	-0.07393356
-2.88422	BROTHERS	-0.07393356
-2.88422	BURNER	-0.07393356
-2.062051	BUT	-0.1145042
-2.835195	BYE	-0.07393356
-2.575959	CAME	-0.1307517
-2.88422	CAN	-0.07393356
-2.88422	CANNOT	-0.07393356
-2.88422	CAR	-0.07393356
-2.575959	CARE	-0.1187778
-2.88422	CAREFUL	-0.07393356
-2.88422	CARETAKER	-0.07393356
-2.835195	CHANGE	-0.1961383
-2.88422	CHANGING	-0.07393356
-2.88422	CHECK	-0.07393356
-2.835195	CHECKING	-0.07393356
-2.835195	CHILD	-0.07393357
-2.359214	CHILDREN	-0.07393356
-2.835195	CHOOSE	-0.07393357
-2.88422	CHOOSING	-0.07393356
-2.745754	CLOSE	-0.07393356
-2.88422	COAL	-0.07393356
-2.88422	COMES	-0.07393356
-2.88422	COMFORTABLE	-0.07393356
-2.88422	COMING	-0.07393356
-2.88422	CONCERN	-0.07393356
-2.88422	CONCERNED	-0.07393356
-2.88422	CONFERENCE	-0.07393356
-2.88422	CONFINED	-0.07393356
-2.88422	CORNER	-0.07393356
-2.745754	COULD	-0.1514724
-2.835195	COURSE	-0.07393356
-2.88422	CUMBERSOME	-0.07393356
-2.88422	DAUGHTER	-0.07393356
-2.575959	DEAL	-0.07393356
-2.745754	DECISION	-0.07393356
-2.88422	DECISIONS	-0.07393356
-2.88422	DELEGATE	-0.07393357
-2.88422	DEVASTATING	-0.07393356
-2.88422	DID	-0.07393356
-2.835195	DIDN'T	-0.07393356
-2.88422	DILEMMA	-0.07393356
-2.88422	DISEASE	-0.07393356
-2.88422	DISTURBING	-0.07393356
-2.835195	DO	-0.07393356
-2.835195	DOING	-0.07393356
-2.835195	DON'T	-0.07393356
-2.835195	DONE	-0.07393356
-2.835195	DOWN	-0.07393357
-2.88422	DRIVING	-0.07393356
-2.88422	DUTIES	-0.07393356
-2.88422	EASIER	-0.07393356
-2.88422	EIGHT	-0.07393356
-2.88422	EIGHTY	-0.07393356
-2.88422	ELSE	-0.07393357
-2.835195	ENVIRONMENT	-0.07393356
-2.835195	ESPECIALLY	-0.07393356
-2.745754	EVEN	-0.1307517
-2.88422	EVER	-0.07393356
-2.88422	EVERY	-0.07393356
-2.88422	EVERYBODY	-0.07393356
-2.88422	EVERYDAY	-0.07393356
-2.835195	EVERYTHING	-0.07393356
-2.88422	EXACTLY	-0.07393356
-2.88422	EXCUSE	-0.07393356
-2.88422	EXPERIENCE	-0.07393356
-2.88422	EXPERIENCES	-0.07393356
-2.575959	EXTENDED	-0.1961383
-2.88422	FACING	-0.07393356
-2.835195	FACT	-0.07393357
-2.835195	FALL	-0.07393357
-2.88422	FAMILIES	-0.07393356
-2.454203	FAMILY	-0.1014141
-2.88422	FAR	-0.07393356
-2.88422	FARM	-0.07393356
-2.88422	FEEL	-0.07393356
-2.88422	FELL	-0.07393356
-2.835195	FEW	-0.07393357
-2.745754	FINALLY	-0.07393356
-2.835195	FINDING	-0.1961383
-1.887257	FOR	-0.1388047
-2.835195	FORTUNATE	-0.07393357
-2.835195	FORTUNATELY	-0.07393357
-2.835195	GET	-0.07393356
-2.88422	GETTING	-0.07393356
-2.88422	GIVING	-0.07393356
-2.88422	GO	-0.07393356
-2.835195	GOING	-0.1961383
-2.88422	GONNA	-0.07393356
-2.575959	GOOD	-0.07393356
-2.835195	GOT	-0.07393356
-2.88422	GRANDCHILDREN	-0.07393356
-2.88422	GRANDMOTHER	-0.07393356
-2.88422	GRANDPARENTS	-0.07393356
-2.835195	GREAT	-0.07393357
-2.88422	GREATEST	-0.07393356
-2.88422	GUESS	-0.07393356
-1.833205	HAD	-0.2228236
-2.88422	HAPPEN	-0.07393356
-2.835195	HAPPY	-0.07393356
-2.88422	HARDER	-0.07393356
-2.88422	HARDEST	-0.07393356
-2.88422	HARDLY	-0.07393356
-2.835195	HAS	-0.07393356
-2.215292	HAVE	-0.07393356
-2.88422	HEARTRENDING	-0.07393356
-2.062051	HER	-0.09974857
-2.88422	HERSELF	-0.07393356
-2.88422	HEY	-0.07393356
-2.88422	HIGH	-0.07393356
-2.88422	HINGE	-0.07393356
-2.88422	HM	-0.07393356
-2.835195	HOME	-0.07393356
-2.88422	HOMETOWN	-0.07393356
-2.835195	HOUSE	-0.07393356
-2.745754	HOW	-0.1514724
-2.88422	HURRY	-0.07393356
-2.88422	HUSBAND	-0.07393356
-1.533323	I	-0.4249525
-2.88422	I'D	-0.07393356
-2.88422	I'M	-0.07393356
-2.835195	I'VE	-0.07393356
-2.745754	IF	-0.07393356
-2.88422	IMAGINE	-0.07393356
-1.721752	IN	-0.2266725
-2.88422	INDEPENDENT	-0.07393356
-2.88422	INDUSTRIALIZED	-0.07393356
-2.88422	INTERESTED	-0.07393356
-2.88422	INTERESTING	-0.07393356
-2.835195	INVOLVED	-0.07393356
-2.359214	IS	-0.1054858
-2.88422	ISSUE	-0.07393356
-2.88422	ISSUES	-0.07393356
-1.702524	IT	-0.2437999
-2.215292	IT'S	-0.09374532
-2.215292	JUST	-0.09577713
-2.835195	KIND	-0.1961383
-2.745754	KNOW	-0.07393356
-2.88422	LAST	-0.07393356
-2.88422	LAW	-0.07393356
-2.88422	LEAST	-0.07393356
-2.88422	LESS	-0.07393356
-2.835195	LIFE	-0.07393356
-2.575959	LIKE	-0.1109748
-2.835195	LITTLE	-0.07393356
-2.88422	LIVED	-0.07393356
-2.88422	LIVING	-0.07393356
-2.88422	LOCATION	-0.07393356
-2.88422	LONG	-0.07393356
-2.88422	LOT	-0.07393356
-2.835195	LUCKY	-0.07393357
-2.88422	MAJOR	-0.07393356
-2.835195	MAKE	-0.07393356
-2.88422	MAKES	-0.07393356
-2.835195	MAKING	-0.07393357
-2.745754	MANY	-0.07393356
-2.88422	MASSIVE	-0.07393356
-2.88422	MATTER	-0.07393356
-2.745754	MAY	-0.1109748
-2.88422	MAYBE	-0.07393356
-2.835195	ME	-0.07393357
-2.88422	MEAN	-0.07393356
-2.88422	MERELY	-0.07393356
-2.88422	MIGHT	-0.07393356
-2.88422	MINES	-0.07393356
-2.88422	MINORITIES	-0.07393356
-2.745754	MONEY	-0.07393356
-2.745754	MONTHS	-0.07393357
-2.454203	MORE	-0.07393357
-2.835195	MOST	-0.07393357
-2.835195	MOTHER	-0.1307517
-2.575959	MUCH	-0.07393356
-2.107377	MY	-0.155463
-2.835195	MYSELF	-0.07393356
-2.88422	NECESSARILY	-0.07393356
-2.88422	NEED	-0.07393356
-2.88422	NEEDED	-0.07393356
-2.835195	NINE	-0.1961383
-2.88422	NO	-0.07393356
-2.021012	NOT	-0.1217353
-2.88422	NOW	-0.07393356
-2.359214	NURSING	-0.5671732
-2.88422	OCCASION	-0.07393356
-1.741871	OF	-0.1359757
-2.88422	OH	-0.07393356
-2.88422	OKAY	-0.07393355
-2.575959	ON	-0.07393356
-2.107377	ONE	-0.2025588
-2.835195	ONLY	-0.07393356
-2.745754	OR	-0.07393356
-2.88422	OTHER	-0.07393356
-2.745754	OUR	-0.07393356
-2.454203	OUT	-0.07393356
-2.835195	OWN	-0.07393356
-2.88422	PARENTS	-0.07393356
-2.88422	PARKINSON'S	-0.07393356
-2.88422	PART	-0.07393356
-2.88422	PASSED	-0.07393356
-2.745754	PEOPLE	-0.07393356
-2.88422	PERFORM	-0.07393356
-2.745754	PERHAPS	-0.07393356
-2.88422	PERSONALLY	-0.07393356
-2.835195	PLACE	-0.07393356
-2.835195	PLACES	-0.07393356
-2.88422	POINT	-0.07393356
-2.88422	POPULATION	-0.07393356
-2.88422	POSSIBLE	-0.07393356
-2.88422	PRETTY	-0.07393356
-2.281318	PROBABLY	-0.1837038
-2.88422	PROBLEM	-0.07393356
-2.88422	PROBLEMS	-0.07393356
-2.88422	PROPER	-0.07393356
-2.835195	PUT	-0.07393356
-2.88422	QUALITY	-0.07393356
-2.88422	QUANTITY	-0.07393356
-2.88422	QUESTION	-0.07393356
-2.835195	QUITE	-0.07393356
-2.88422	RAISED	-0.07393356
-2.835195	RAN	-0.07393356
-2.835195	RATHER	-0.07393356
-2.88422	REALITY	-0.07393357
-2.88422	REALIZATION	-0.07393356
-2.281318	REALLY	-0.1014141
-2.88422	RELIEF	-0.07393356
-2.88422	RESPECT	-0.07393356
-2.88422	RESPONSIBILITIES	-0.07393356
-2.88422	RETURN	-0.07393356
-2.745754	RIGHT	-0.1187778
-2.88422	RURAL	-0.07393356
-2.835195	SEE	-0.1961383
-2.88422	SEEM	-0.07393356
-2.88422	SEEMS	-0.07393356
-2.88422	SEEN	-0.07393357
-2.88422	SEVERAL	-0.07393356
-1.721752	SHE	-0.30241
-2.88422	SHOULD	-0.07393356
-2.88422	SISTERS	-0.07393356
-2.835195	SITUATION	-0.07393356
-2.745754	SIX	-0.07393356
-2.835195	SMALLER	-0.07393356
-2.835195	SMOOTH	-0.07393356
-2.359214	SO	-0.1109748
-2.88422	SOLUTIONS	-0.07393356
-2.88422	SOMEBODY	-0.07393356
-2.575959	SOMETHING	-0.2095512
-2.88422	SOMETIME	-0.07393356
-2.88422	SPENT	-0.07393356
-2.835195	STANDARD	-0.1961383
-2.88422	STATES	-0.07393357
-2.88422	STAY	-0.07393356
-2.835195	STILL	-0.07393356
-2.88422	STRENGTHENED	-0.07393356
-2.88422	STRENGTHENING	-0.07393356
-2.745754	STROKE	-0.07393357
-2.835195	SUCH	-0.07393356
-2.88422	SURE	-0.07393356
-2.835195	TAKE	-0.1961383
-2.88422	TAKING	-0.07393356
-2.88422	TEN	-0.07393356
-2.835195	THAN	-0.07393356
-1.55958	THAT	-0.1656286
-2.88422	THAT'D	-0.07393356
-2.454203	THAT'S	-0.07393356
-1.785141	THE	-0.1007227
-2.835195	THEIR	-0.07393357
-2.835195	THEM	-0.07393356
-2.835195	THEN	-0.07393357
-2.454203	THERE	-0.07393356
-2.745754	THERE'S	-0.07393356
-2.88422	THESE	-0.07393356
-2.215292	THEY	-0.1232216
-2.835195	THEY'RE	-0.1961383
-2.88422	THEY'VE	-0.07393356
-2.745754	THING	-0.07393356
-2.575959	THINGS	-0.07393356
-2.88422	THINK	-0.07393356
-2.88422	THOUGHT	-0.07393356
-2.88422	THREE	-0.07393356
-2.88422	TIME	-0.07393356
-2.88422	TIMES	-0.07393357
-1.649475	TO	-0.1635846
-2.88422	TODAY	-0.07393356
-2.835195	TOGETHER	-0.1961383
-2.835195	TOO	-0.07393356
-2.88422	TOOK	-0.07393356
-2.745754	TOUGH	-0.1514724
-2.88422	TOWNS	-0.07393356
-2.88422	TRAVELED	-0.07393356
-2.88422	TRAVELING	-0.07393356
-2.88422	TRUER	-0.07393356
-2.835195	TRULY	-0.07393357
-2.88422	TURNED	-0.07393356
-1.721752	UH	-0.1458323
-2.745754	UHHUH	-0.146187
-2.745754	UM	-0.1054858
-2.835195	UNFORTUNATELY	-0.07393356
-2.88422	UNITED	-0.07393356
-2.88422	UNLESS	-0.07393356
-2.88422	UPON	-0.07393356
-2.835195	US	-0.07393356
-2.745754	USED	-0.1514724
-2.88422	USUALLY	-0.07393356
-2.88422	VALUES	-0.07393356
-2.359214	VERY	-0.1054858
-2.88422	VISITED	-0.07393356
-2.88422	VISITING	-0.07393356
-2.88422	WALKER	-0.07393356
-2.88422	WANT	-0.07393356
-2.107377	WAS	-0.1354026
-2.835195	WASN'T	-0.07393356
-1.808508	WE	-0.1928982
-2.88422	WEEKS	-0.07393356
-2.281318	WELL	-0.09827343
-2.281318	WERE	-0.12906
-2.575959	WHAT	-0.07393356
-2.88422	WHAT'S	-0.07393356
-2.454203	WHEN	-0.1187778
-2.835195	WHERE	-0.07393356
-2.835195	WHETHER	-0.1514723
-2.835195	WHICH	-0.1961383
-2.88422	WHILE	-0.07393356
-2.745754	WHO	-0.07393356
-2.88422	WHOLE	-0.07393356
-2.88422	WISH	-0.07393356
-2.021012	WITH	-0.1645404
-2.88422	WORK	-0.07393356
-2.88422	WORLD	-0.07393356
-2.281318	WOULD	-0.09827343
-2.454203	YEAH	-0.1636936
-2.88422	YEAR	-0.07393356
-2.88422	YEP	-0.07393356
-2.88422	YES	-0.07393356
-1.587527	YOU	-1.112641
-2.88422	YOU'D	-0.07393356

\2-grams:
-2.658568	<s> ABSOLUTELY
-1.071185	<s> AND	-0.03093496
-2.672074	<s> ANY
-2.27574	<s> BUT
-2.658568	<s> CHANGE
-2.567179	<s> DEAL
-2.658568	<s> ESPECIALLY
-2.658568	<s> FINDING
-2.672074	<s> GETTING
-2.102894	<s> HAD
-2.672074	<s> HM
-1.701473	<s> I
-2.672074	<s> I'D
-1.80096	<s> IT
-2.630975	<s> MONEY
-1.973365	<s> MY	-0.4294354
-2.246424	<s> NOT
-2.462271	<s> NURSING
-2.672074	<s> OH
-2.106207	<s> OKAY
-2.672074	<s> RESPONSIBILITIES
-1.838065	<s> RIGHT
-1.811245	<s> SHE
-2.462271	<s> SO
-2.672074	<s> SURE
-2.658568	<s> THAN
-1.717948	<s> THAT
-1.81647	<s> THAT'S	-0.2350644
-2.063952	<s> THE
-1.811245	<s> UH
-0.733959	<s> UHHUH	-0.4884031
-2.094649	<s> UM
-1.855008	<s> WE
-2.418006	<s> WELL
-2.418006	<s> WERE
-2.567179	<s> WHAT
-0.9383246	<s> YEAH	-0.1400709
-2.672074	<s> YEP
-1.614255	<s> YES	-0.03537321
-1.260571	<s> YOU	-0.1268193
-1.466779	A A
-2.221582	A BIG
-2.238889	A CHANGE
-2.247209	A CONFERENCE
-2.247209	A DILEMMA
-2.238889	A FALL
-2.247209	A FARM
-2.238889	A FEW
-2.180024	A GOOD
-2.238889	A GREAT
-1.637323	A HOME	-0.4294354
-2.247209	A HURRY
-2.247209	A LONG
-0.8745911	A LOT	-0.3504857
-1.600439	A NURSING	-0.4294354
-2.238889	A PLACE
-2.247209	A PROPER
-2.238889	A RATHER
-2.247209	A RELIEF
-2.247209	A RURAL
-2.238889	A STANDARD
-2.247209	A TRUER
-2.10722	A VERY
-2.247209	A WALKER
-2.247209	A WHILE
-0.7558668	ABLE TO
-1.098091	ABOUT SIX
-1.025602	ABOUT UH
-0.9117375	ABSOLUTELY </s>
-1.099628	ABSOLUTELY UNFORTUNATELY
-0.7836428	ACQUAINTED WITH
-0.7686082	ACROSS THE
-1.368327	ACTUALLY BECAUSE
-1.28804	ACTUALLY HAD
-1.353873	ACTUALLY HAVE
-1.395394	ACTUALLY TAKING
-1.082593	AFTER ALL
-1.025602	AFTER SHE
-0.6972281	AGAIN </s>
-0.8023408	AGE EIGHTY
-0.7417486	AGO I
-0.7487503	AGREED YOU
-0.6972281	AHEAD </s>
-1.197036	ALL </s>
-1.631038	ALL ACROSS
-1.535189	ALL BUT
-1.436828	ALL OF
-1.623956	ALL RIGHT
-0.9329494	ALL THE
-0.7667649	ALLEVIATE A
-1.067629	ALSO HER
-1.071322	ALSO WAS
-0.7631017	ALWAYS UH
-0.8012031	ALZHEIMER'S OR
-1.272365	AN APARTMENT
-1.273437	AN ISSUE
-1.273437	AN OCCASION
-2.298427	AND ALSO
-1.281668	AND AND
-2.298427	AND DOING
-2.306903	AND EVERYBODY
-1.913734	AND FOR
-2.298427	AND GET
-2.021326	AND HER
-0.9704034	AND I	-0.120363
-1.313968	AND IT	-0.2288606
-2.101556	AND JUST
-2.200044	AND MORE
-2.306903	AND NEEDED
-1.797387	AND SHE
-2.306903	AND SISTERS
-2.298427	AND STILL
-2.298427	AND THEN
-1.639744	AND THEY
-1.318785	AND UH
-1.196497	AND UM	-0.02290974
-2.306903	AND VISITED	-0.04945569
-2.131969	AND WELL
-1.281668	AND YOU	-0.04945571
-0.7649295	ANY OF
-0.7874842	ANYMORE WAS
-0.7649295	ANYTHING OF
-1.100348	APARTMENT AGAIN
-0.9996862	APARTMENT AND
-0.8019784	AREAS SMALLER
-1.622021	AS CLOSE
-1.629608	AS HIGH
-1.407889	AS IT
-1.629608	AS POSSIBLE
-1.572263	AS PROBABLY
-1.384387	AS TO
-1.450127	AS WE
-1.270091	AT A
-1.395394	AT AGE
-1.36104	AT ALL
-1.395394	AT LEAST
-0.8019784	AVAILABLE COURSE
-1.130869	AWARE AND
-1.114179	AWARE I
-1.170946	AWARE OF
-1.025602	AWAY IN
-1.022277	AWAY IT
-0.8023408	BACK BURNER
-1.255686	BE </s>
-1.568516	BE A	-0.4294355
-1.850756	BE AVAILABLE
-1.209361	BE DONE
-1.536219	BE IT
-1.71304	BE ONE
-1.846886	BE PUT
-1.846886	BE TOO
-1.838709	BE TOUGH
-1.780352	BE VERY
-1.469064	BE YOU
-1.175628	BECAUSE </s>
-1.484083	BECAUSE HER
-0.8648685	BECAUSE IT
-1.389469	BECAUSE SHE
-1.418775	BECAUSE WE
-0.797239	BECOME MORE
-1.272365	BEEN HAPPY
-1.252843	BEEN SO
-1.130869	BEEN YOU
-1.270079	BIG DECISION
-1.170946	BIG OF
-1.166305	BIG UH
-0.8023408	BIGGEST DECISIONS
-0.6972281	BROTHER </s>
-0.7487503	BROTHERS AND
-0.7452354	BURNER THAT
-1.263205	BUT </s>
-1.788609	BUT ACTUALLY
-1.593288	BUT HAD
-1.052696	BUT I
-1.723306	BUT IT'S
-1.540455	BUT SHE
-1.571378	BUT THE
-1.806594	BUT THERE'S
-1.093376	BUT UH
-0.9117375	BYE </s>
-1.099628	BYE BYE
-0.697163	CAME AND	-0.04945569
-1.253979	CAME TO
-1.335501	CAME WITH
-0.8023408	CAN IMAGINE
-0.9872861	CANNOT I
-1.099628	CANNOT TAKE
-0.7992165	CAR AT
-1.421343	CARE BUT
-0.7982039	CARE OF
-1.28167	CARE THAT
-1.292666	CARE YOU
-0.7487503	CAREFUL AND
-0.7760604	CARETAKER FOR
-0.4260364	CHANGE OF
-0.7952704	CHANGING BECAUSE
-0.7933107	CHECK ALL
-1.090273	CHECKING OUT
-1.099628	CHECKING THEM
-1.264257	CHILD CARE
-1.166305	CHILD IN
-1.272365	CHILD MAKE
-1.152693	CHILDREN </s>
-1.515664	CHILDREN ALL
-1.47624	CHILDREN BUT
-1.41484	CHILDREN HAD
-1.515664	CHILDREN WERE
-1.515664	CHILDREN WOULD
-1.063967	CHOOSE NOT
-1.012451	CHOOSE TO
-0.7649295	CHOOSING OF
-1.175636	CLOSE A
-1.252843	CLOSE IS
-1.148226	CLOSE TO
-0.8023408	COAL MINES
-0.8023408	COMES OTHER
-0.7487503	COMFORTABLE YOU
-0.7952704	COMING SO
-0.7760604	CONCERN FOR
-0.7836428	CONCERNED WITH
-0.7487503	CONFERENCE AND
-0.7558668	CONFINED TO
-0.8019784	CORNER ESPECIALLY
-1.248133	COULD HAVE
-0.6038115	COULD NOT	-0.4294354
-1.353873	COURSE IT'S
-1.258524	COURSE SHE
-1.375739	COURSE THERE
-1.390953	COURSE THERE'S
-0.797239	CUMBERSOME WHEN
-0.7992165	DAUGHTER CAME	-0.4294354
-1.390953	DEAL IF
-1.264269	DEAL OF
-1.281974	DEAL WE
-1.326331	DEAL WITH
-1.121623	DECISION </s>
-1.274812	DECISION AND
-1.447084	DECISION AS
-1.455984	DECISION BECAUSE
-1.487583	DECISION MAKING
-0.7417486	DECISIONS I
-0.7612816	DELEGATE IT
-0.6972281	DEVASTATING </s>
-0.7836428	DID NOT
-1.078803	DIDN'T HAVE
-0.9872861	DIDN'T I
-0.7417486	DILEMMA I
-0.7487503	DISEASE AND
-0.7760604	DISTURBING FOR
-1.161714	DO IT
-1.264257	DO SOMETHING
-1.130869	DO YOU
-1.022277	DOING IT
-0.9934419	DOING THAT
-1.098091	DON'T KNOW
-1.039164	DON'T WE
-1.015715	DONE </s>
-1.166305	DONE IN
-1.130869	DONE YOU
-1.012451	DOWN TO
-1.099628	DOWN TOGETHER
-0.7855592	DRIVING HER
-0.7558668	DUTIES TO
-0.6972281	EASIER </s>
-0.8012031	EIGHT MONTHS
-0.8023408	EIGHTY THREE
-0.7704592	ELSE WE
-1.130869	ENVIRONMENT AND
-1.247246	ENVIRONMENT AS
-1.258512	ENVIRONMENT THAT'S
-1.025602	ESPECIALLY IN
-1.099628	ESPECIALLY WHERE
-1.395605	EVEN CHILD
-0.7374717	EVEN EVEN
-1.396854	EVEN HARDER
-0.8023408	EVER WANT
-0.8023408	EVERY CORNER
-0.7723183	EVERYBODY HAD
-0.6972281	EVERYDAY </s>
-1.086416	EVERYTHING BECAUSE
-1.082593	EVERYTHING WOULD
-0.7487503	EXACTLY YOU
-0.8019784	EXCUSE ME
-0.7631017	EXPERIENCE UH
-0.7836428	EXPERIENCES WITH
-0.7386546	EXTENDED FAMILIES
-0.7353224	EXTENDED FAMILY
-0.7452354	FACING THAT
-0.9117375	FACT </s>
-1.025602	FACT IN
-0.9996862	FALL AND
-1.012451	FALL TO
-1.049621	FAMILIES FOR
-1.022277	FAMILIES IT
-0.8780954	FAMILY </s>
-1.397568	FAMILY AND
-1.637718	FAMILY BECAUSE
-1.683523	FAMILY ENVIRONMENT
-1.461016	FAMILY UH
-1.58922	FAMILY WAS
-1.397568	FAMILY YOU
-0.797239	FAR MORE
-1.067629	FARM BUT
-1.099628	FARM RAN
-1.078803	FEEL IT'S
-1.099628	FEEL THEY'RE
-0.7487503	FELL AND
-1.094164	FEW THINGS
-1.100348	FEW WEEKS
-1.264257	FINALLY CAME
-1.190018	FINALLY HAD
-1.166305	FINALLY UH
-0.4266704	FINDING A
-1.682423	FOR A
-1.568354	FOR AND
-1.7531	FOR FOR
-1.104351	FOR HER
-2.031496	FOR ME
-2.031496	FOR MOST
-1.856616	FOR MY
-2.031496	FOR MYSELF
-1.132837	FOR OUR	-0.2347818
-2.031496	FOR QUITE
-2.036821	FOR SOMEBODY
-2.031496	FOR SUCH
-1.405441	FOR THEIR
-2.031496	FOR US
-0.9117375	FORTUNATE </s>
-1.025602	FORTUNATE IN
-1.025602	FORTUNATELY SHE
-1.039164	FORTUNATELY WE
-1.098091	GET CLOSE
-1.099628	GET DOWN
-0.8019784	GETTING DOWN
-0.8012031	GIVING MONEY
-0.8023408	GO AHEAD
-0.4375913	GOING ON
-0.7913598	GONNA BE	-0.4294354
-1.152693	GOOD </s>
-1.565583	GOOD CARETAKER
-1.565583	GOOD EXPERIENCE
-1.565583	GOOD EXPERIENCES
-1.563486	GOOD THEY'RE
-1.375754	GOOD UH
-1.252843	GOT SO
-1.148226	GOT TO
-1.272365	GOT TOGETHER
-0.7992165	GRANDCHILDREN CAME
-0.9872861	GRANDMOTHER I
-1.025602	GRANDMOTHER SHE
-0.7933107	GRANDPARENTS WOULD
-0.9117375	GREAT </s>
-1.094164	GREAT DEAL
-0.6972281	GREATEST </s>
-0.9117375	GUESS </s>
-1.082593	GUESS AS
-0.7784138	HAD A	-0.0857266
-2.17616	HAD AN
-2.189396	HAD BEEN
-2.085734	HAD CHILDREN
-2.195715	HAD DUTIES
-2.14388	HAD EXTENDED
-2.195715	HAD FELL
-2.189396	HAD FORTUNATELY
-1.506582	HAD HER	-0.2347464
-2.195715	HAD SEEN
-1.770785	HAD SHE
-2.195715	HAD TEN
-2.034462	HAD THEY
-0.8730978	HAD TO	-0.1243598
-1.428072	HAD UH
-2.17616	HAD USED
-2.059342	HAD WELL
-0.7452354	HAPPEN THAT
-1.090273	HAPPY THERE
-1.063967	HAPPY WITH
-0.7992165	HARDER ACTUALLY
-0.8012031	HARDEST THING
-0.7417486	HARDLY I
-1.099628	HAS HAS
-1.025602	HAS UH
-1.519827	HAVE A
-1.697523	HAVE AS
-1.772464	HAVE BEEN
-1.772464	HAVE DONE
-1.747319	HAVE EXTENDED
-1.552258	HAVE HAD
-1.652853	HAVE MY
-1.652853	HAVE ONE
-1.530371	HAVE THE
-1.426458	HAVE YOU
-0.7760604	HEARTRENDING FOR
-1.293104	HER </s>
-1.526456	HER AND
-1.984237	HER APARTMENT
-1.946228	HER AT
-1.896755	HER BECAUSE
-1.896755	HER CHILDREN
-1.989462	HER CHOOSING
-1.358611	HER DAUGHTER	-0.4294355
-1.989462	HER EVERYDAY
-1.984237	HER HOUSE
-1.989462	HER HUSBAND
-1.488316	HER I
-1.357383	HER OWN
-1.973252	HER STROKE
-1.614547	HER UH
-0.8023408	HERSELF ANYMORE
-0.8019784	HEY BYE
-0.7667649	HIGH A
-0.8023408	HINGE UPON
-0.6972281	HM </s>
-1.194944	HOME </s>
-1.383302	HOME AND
-1.681942	HOME ENVIRONMENT
-1.515674	HOME FOR
-1.448865	HOME IN
-1.681942	HOME LIFE
-1.448865	HOME SHE
-1.368349	HOME THAT
-0.6972281	HOMETOWN </s>
-0.9996862	HOUSE AND
-1.025602	HOUSE SHE
-1.272087	HOW CLOSE
-0.5801515	HOW I	-0.4294354
-0.7417486	HURRY I
-0.7874842	HUSBAND WAS
-1.893263	I AND
-2.448544	I CAN
-1.831444	I CANNOT
-2.441448	I DIDN'T
-2.441448	I DON'T
-1.831444	I GUESS
-2.066102	I HAD
-2.448544	I HARDLY
-0.7564288	I I	-0.1825866
-2.441448	I KIND
-2.426627	I KNOW
-0.6506821	I MEAN	-0.05700263
-2.441448	I ONLY
-2.441448	I SEE
-0.9014201	I THINK	-0.2154247
-2.441448	I TRULY
-1.305439	I WAS
-2.297914	I WOULD
-0.7913598	I'D BE
-0.7417486	I'M I
-1.042622	I'VE HAD
-1.099628	I'VE I'VE
-1.230876	IF ONE
-1.264257	IF SOMETHING
-1.185171	IF WE
-0.6972281	IMAGINE </s>
-0.9932361	IN A
-2.149588	IN AN
-2.161916	IN CHECKING
-2.161916	IN DOING
-1.406544	IN IN
-2.167793	IN LAW
-2.167793	IN MATTER
-1.972464	IN MY
-2.06472	IN NURSING
-1.972464	IN ONE
-2.149588	IN OUR
-2.167793	IN REALITY
-1.159735	IN THAT
-0.7496216	IN THE	-0.1015016
-1.670404	IN YOU
-0.7631017	INDEPENDENT SHE
-0.7487503	INDUSTRIALIZED AND
-0.7452354	INTERESTED THAT
-0.7452354	INTERESTING THAT
-1.025602	INVOLVED IN
-1.078803	INVOLVED JUST
-1.631038	IS CHANGING
-1.631038	IS FAR
-0.9230323	IS IT
-1.600006	IS THERE
-1.628772	IS WHICH
-1.370198	IS YOU
-0.7836428	ISSUE WITH
-0.7487503	ISSUES YOU
-1.272594	IT </s>
-2.095061	IT AS
-2.000245	IT BUT
-2.237003	IT COMING
-1.614763	IT GOT
-1.872093	IT HAD
-2.216532	IT HOW
-1.396295	IT I
-2.230383	IT INVOLVED
-2.237003	IT MAKES
-2.216532	IT MAY
-2.02208	IT ONE
-1.74872	IT TO
-2.237003	IT TURNED
-0.5612979	IT WAS	-0.06084184
-1.614763	IT WASN'T
-2.151564	IT WHEN
-2.095061	IT WOULD
-1.247767	IT'S </s>
-1.815802	IT'S INTERESTING
-1.51976	IT'S IT
-1.148847	IT'S IT'S
-1.718076	IT'S JUST
-1.812244	IT'S KIND
-1.812244	IT'S QUITE
-1.734076	IT'S REALLY
-1.815802	IT'S USUALLY
-1.455158	IT'S YOU
-1.530216	JUST A
-1.777264	JUST DELEGATE
-1.500799	JUST IT
-1.687413	JUST JUST
-1.777264	JUST MERELY
-1.540482	JUST THE
-1.774022	JUST THEM
-1.777264	JUST VISITING
-1.029578	JUST YOU	-0.4294354
-0.4260364	KIND OF
-1.308394	KNOW </s>
-2.222363	KNOW ANYTHING
-2.212929	KNOW CHECKING
-2.193386	KNOW COULD
-2.222363	KNOW FACING
-1.800614	KNOW FOR
-2.222363	KNOW GIVING
-2.193386	KNOW HOW
-1.52879	KNOW I	-0.04945569
-1.679876	KNOW IN
-2.066499	KNOW IS
-1.665073	KNOW IT
-1.998719	KNOW IT'S
-2.222363	KNOW LESS
-2.146848	KNOW LIKE
-2.212929	KNOW MAKING
-2.222363	KNOW MAYBE
-2.222363	KNOW NO
-2.146848	KNOW ON
-2.193386	KNOW PERHAPS
-2.031288	KNOW REALLY
-1.679876	KNOW SHE
-2.212929	KNOW SMALLER
-1.550596	KNOW THAT
-2.193386	KNOW THERE'S
-1.998719	KNOW THEY
-1.679876	KNOW UH
-2.222363	KNOW UNLESS
-1.744718	KNOW WE
-2.146848	KNOW WHAT
-2.104818	KNOW WHEN
-2.212929	KNOW WHETHER
-0.8019784	LAST FEW
-0.8012031	LAW WHO
-0.7855592	LEAST HER
-0.7631017	LESS IN
-1.099628	LIFE HAS
-1.082593	LIFE WOULD
-1.565091	LIKE FINDING
-1.565091	LIKE GET
-1.56098	LIKE SIX
-0.8462214	LIKE THAT
-1.411261	LIKE THE
-1.100348	LITTLE HOMETOWN
-1.099628	LITTLE HOUSE
-0.7631017	LIVED IN
-0.9117375	LIVING </s>
-1.067629	LIVING BUT
-0.7487503	LOCATION AND
-0.8023408	LONG TIME
-0.7649295	LOT OF	-0.02242821
-1.166305	LUCKY IN
-1.272365	LUCKY TOO
-1.166305	LUCKY UH
-0.8023408	MAJOR QUESTION
-1.022277	MAKE IT
-0.9934419	MAKE THAT
-0.7992165	MAKES THINGS
-0.9934419	MAKING THAT
-0.9996862	MAKING YOU
-1.270079	MANY MANY
-1.258512	MANY MORE
-1.270079	MANY PEOPLE
-0.8012031	MASSIVE STROKE
-0.7649295	MATTER OF
-0.9001347	MAY BE
-1.565091	MAY CHOOSE
-1.567023	MAY NEED
-1.475362	MAY NOT
-1.32384	MAY THAT
-0.7874842	MAYBE ONE
-0.9117375	ME </s>
-1.100348	ME GO
-1.638928	MEAN BUT
-1.575308	MEAN FOR
-1.394089	MEAN I	-0.2317901
-1.772464	MEAN I'VE
-1.489651	MEAN IT
-1.509534	MEAN OF
-1.499478	MEAN SHE
-1.682116	MEAN THEY
-1.499478	MEAN UH
-1.541177	MEAN WE
-0.7723183	MERELY HAD
-0.7913598	MIGHT BE
-0.7487503	MINES AND
-0.8019784	MINORITIES WHERE
-1.264257	MONEY ON
-1.270079	MONEY OR
-1.273437	MONEY SEEMS
-1.395394	MONTHS AGO
-1.21511	MONTHS AND
-1.375739	MONTHS OUT
-1.236275	MONTHS TO
-1.489342	MORE DEVASTATING
-1.489342	MORE INDUSTRIALIZED
-1.489342	MORE MINORITIES
-1.331709	MORE OF
-1.274812	MORE YOU
-1.028953	MOST OF
-1.100348	MOST STRENGTHENING
-1.395605	MOTHER ALSO
-1.396854	MOTHER EXCUSE
-0.7083031	MOTHER IN
-1.390953	MUCH AWARE
-1.395394	MUCH EASIER
-1.38328	MUCH MUCH
-1.204903	MUCH THAT
-1.793123	MY CHILDREN
-1.809632	MY FAMILY
-1.211262	MY GRANDMOTHER
-1.210492	MY MOTHER
-1.732728	MY ONE
-1.855197	MY PARENTS
-0.8934289	MY UH
-1.705413	MY WITH
-0.9117375	MYSELF </s>
-0.9872861	MYSELF I
-0.7487503	NECESSARILY YOU
-0.7558668	NEED TO
-0.7558668	NEEDED TO
-0.4382424	NINE MONTHS
-0.7417486	NO I
-1.300254	NOT </s>
-1.211161	NOT A	-0.4294354
-1.016654	NOT HAVE	-0.1632805
-1.822809	NOT JUST
-1.753639	NOT NOT
-1.786848	NOT ONE
-1.841971	NOT REALLY
-1.937794	NOT TAKE	-0.4294355
-1.56271	NOT TO
-1.862019	NOT VERY
-1.654075	NOT WE
-1.523352	NOT YOU
-0.7452354	NOW THAT
-0.1369837	NURSING HOME
-0.7760604	OCCASION FOR
-1.362269	OF </s>
-1.752776	OF A
-2.196367	OF AN
-1.595392	OF CARE
-1.342864	OF COURSE
-2.221551	OF CUMBERSOME
-2.213377	OF FACT
-2.155477	OF GOOD
-1.526018	OF HER
-2.221551	OF HERSELF
-2.221551	OF LIVING
-2.221551	OF LOCATION
-1.9682	OF MY
-2.213377	OF MYSELF
-2.213377	OF SEE
-1.598472	OF THAT
-1.052617	OF THE
-2.213377	OF THEIR
-2.221551	OF THESE
-2.155477	OF THINGS
-2.221551	OF TIMES
-2.196367	OF UM
-2.155477	OF WHAT
-1.620675	OF YOU
-0.7417486	OH I
-1.082593	OKAY ALL
-1.082593	OKAY WELL
-1.121623	ON </s>
-1.489342	ON EVERY
-1.489342	ON EXACTLY
-1.345433	ON THE
-1.489342	ON TODAY
-1.78324	ONE BROTHER
-1.133133	ONE CHILD
-0.6041176	ONE OF	-0.211823
-1.76148	ONE ON
-1.78324	ONE RESPECT
-1.775208	ONE THING
-1.042622	ONLY HAD
-1.078803	ONLY HAVE
-1.220295	OR NOT
-1.264257	OR SOMETHING
-1.272365	OR WHETHER
-0.8023408	OTHER ISSUES
-1.368327	OUR CHILDREN
-1.375739	OUR FAMILY
-1.28804	OUR HAD
-1.393976	OUR LITTLE
-1.121623	OUT </s>
-1.447084	OUT ALL
-1.331709	OUT OF
-1.345433	OUT THE
-1.325007	OUT UH
-1.395394	OWN CAR
-1.38328	OWN GOOD
-1.393976	OWN LITTLE
-1.393976	OWN STILL
-0.7992165	PARENTS CAME
-0.8023408	PARKINSON'S DISEASE
-0.7631017	PART IN
-0.8019784	PASSED AWAY
-1.015715	PEOPLE </s>
-1.122444	PEOPLE THAT
-1.270079	PEOPLE WHO
-0.7487503	PERFORM YOU
-1.078826	PERHAPS </s>
-1.390953	PERHAPS IF
-1.390953	PERHAPS PERHAPS
-1.275992	PERHAPS THE
-0.8023408	PERSONALLY ACQUAINTED
-0.9996862	PLACE AND
-1.071322	PLACE MY
-1.090273	PLACES OUT
-0.9934419	PLACES THAT
-0.7452354	POINT THAT
-0.7631017	POPULATION IN
-0.7417486	POSSIBLE I
-0.8023408	PRETTY HEARTRENDING
-1.632276	PROBABLY ABOUT
-0.9627867	PROBABLY ONE	-0.04945569
-0.683808	PROBABLY THE
-1.561012	PROBABLY WAS
-0.7836428	PROBLEM WITH
-0.7417486	PROBLEMS I
-0.7952704	PROPER NURSING
-1.025602	PUT IN
-1.098091	PUT MONEY
-1.067629	QUALITY BUT
-1.028953	QUALITY OF
-0.7649295	QUANTITY OF
-0.6972281	QUESTION </s>
-1.03233	QUITE A
-1.100348	QUITE SOMETIME
-0.8019784	RAISED US
-1.099628	RAN EVERYTHING
-1.035734	RAN THE
-1.100348	RATHER MASSIVE
-1.099628	RATHER THAN
-0.7612816	REALITY IT
-0.7452354	REALIZATION THAT
-1.47844	REALLY A
-1.686119	REALLY CONCERNED
-1.683523	REALLY HAPPY
-1.664161	REALLY MUCH
-1.566862	REALLY NOT
-1.678012	REALLY TOUGH
-0.9534306	REALLY YOU	-0.4294354
-0.7760604	RELIEF FOR
-0.7631017	RESPECT IN
-0.7992165	RESPONSIBILITIES LIKE
-0.7558668	RETURN TO
-0.7321537	RIGHT </s>
-1.490793	RIGHT HEY
-1.485807	RIGHT UHHUH
-1.468772	RIGHT YEAH
-0.8019784	RURAL SITUATION
-0.4191235	SEE THAT
-0.7558668	SEEM TO
-0.7558668	SEEMS TO
-0.7612816	SEEN IT
-0.8023408	SEVERAL GRANDCHILDREN
-2.160167	SHE COULD
-2.175789	SHE DID
-2.160167	SHE FINALLY
-0.4822562	SHE HAD	-0.1195259
-2.175789	SHE LIVED
-2.170756	SHE ONLY
-2.175789	SHE PASSED
-2.175789	SHE SPENT
-2.170756	SHE THEN
-2.175789	SHE TRAVELED
-1.021269	SHE WAS	-0.1635131
-2.170756	SHE WASN'T
-1.514815	SHE WOULD
-0.7913598	SHOULD BE
-0.8019784	SISTERS GOT
-0.9117375	SITUATION </s>
-1.078803	SITUATION IT'S
-1.273437	SIX EIGHT
-1.270079	SIX MONTHS
-1.148226	SIX TO
-1.100348	SMALLER AREAS
-1.100348	SMALLER TOWNS
-1.099628	SMOOTH SMOOTH
-1.098091	SMOOTH THING
-0.8421842	SO I
-1.56098	SO MANY
-1.55059	SO MUCH
-1.530526	SO SO
-1.56098	SO USED
-0.7558668	SOLUTIONS TO
-0.8012031	SOMEBODY WHO
-1.398593	SOMETHING ELSE
-0.4618386	SOMETHING LIKE	-0.04945569
-0.7933107	SOMETIME PROBABLY
-0.8019784	SPENT NINE
-0.4260364	STANDARD OF	-0.4294355
-1.130869	STATES AND
-1.252843	STATES IS
-1.185171	STATES WE
-0.7667649	STAY A
-1.100348	STILL DRIVING
-1.042622	STILL HAD
-0.7760604	STRENGTHENED FOR
-0.7992165	STRENGTHENING THINGS
-1.272365	STROKE ABOUT
-1.166305	STROKE SHE
-1.273437	STROKE TOOK
-1.03233	SUCH A
-0.9934419	SUCH THAT
-0.6972281	SURE </s>
-0.4375913	TAKE CARE	-0.04945569
-0.8023408	TAKING PART
-0.7952704	TEN CHILDREN
-1.078803	THAN HAVE
-1.078803	THAN JUST
-1.40853	THAT </s>
-1.824441	THAT A
-2.377504	THAT AFTER
-1.680922	THAT AND
-2.169553	THAT AS
-2.388683	THAT CONCERN
-1.794273	THAT DECISION
-1.919081	THAT FOR
-1.634597	THAT I
-2.354482	THAT IF
-1.791692	THAT IN
-1.776199	THAT IT
-1.533458	THAT MAY
-2.069158	THAT MY
-2.208935	THAT NURSING
-2.354482	THAT PERHAPS
-2.388683	THAT SEEM
-1.556059	THAT SHE
-2.377504	THAT SITUATION
-2.208935	THAT SO
-1.32902	THAT THAT
-1.84179	THAT THE
-1.721411	THAT THEY
-1.732785	THAT TO
-1.556059	THAT UH
-1.129588	THAT WAS
-1.412678	THAT WE
-2.169553	THAT WERE
-2.300364	THAT WHAT
-2.252248	THAT WHEN
-2.377504	THAT WHICH
-2.388683	THAT WORK
-1.340029	THAT YOU	-0.04945571
-0.7913598	THAT'D BE
-1.563486	THAT'S GREAT	-0.4294354
-1.515664	THAT'S PROBABLY
-1.515664	THAT'S REALLY
-1.559028	THAT'S RIGHT
-1.398781	THAT'S THE
-1.559028	THAT'S TOUGH
-1.226604	THE </s>
-2.313969	THE BACK
-2.313969	THE BIGGEST
-2.313969	THE BROTHERS
-2.137521	THE CHILDREN
-2.313969	THE COAL
-1.717803	THE DECISION
-1.702622	THE EXTENDED	-0.4294355
-2.303036	THE FACT
-2.180156	THE FAMILY
-2.313969	THE GRANDPARENTS
-2.313969	THE GREATEST
-2.313969	THE HARDEST
-2.313969	THE LAST
-2.313969	THE MAJOR
-2.303036	THE MOST
-2.137521	THE NURSING
-2.280503	THE PEOPLE
-2.303036	THE PLACES
-2.313969	THE POINT
-2.313969	THE POPULATION
-2.313969	THE PROBLEM
-2.313969	THE PROBLEMS
-1.72671	THE QUALITY
-2.313969	THE QUANTITY
-2.313969	THE REALIZATION
-2.313969	THE SOLUTIONS
-2.280503	THE STROKE
-2.180156	THE THAT'S
-1.774078	THE THE
-1.724284	THE UH
-1.72671	THE UNITED	-0.04945571
-2.313969	THE VALUES
-2.313969	THE WHOLE
-2.313969	THE WORLD
-2.313969	THE YEAR
-1.272365	THEIR LIFE
-1.272365	THEIR OWN
-1.166305	THEIR UH
-0.9996862	THEM AND
-1.090273	THEM OUT
-0.9117375	THEN </s>
-1.025602	THEN SHE
-1.474353	THERE AT
-1.489342	THERE COMES
-1.474353	THERE SOMETHING
-1.465071	THERE THERE
-1.447084	THERE WERE
-1.220295	THERE'S NOT
-1.247246	THERE'S WELL
-1.130869	THERE'S YOU
-0.8019784	THESE PLACES
-1.75319	THEY ACTUALLY
-1.454464	THEY AND
-0.828248	THEY HAD
-1.693786	THEY HAVE
-1.423589	THEY I
-1.778935	THEY RAISED
-1.693786	THEY THEY
-1.707892	THEY WERE
-0.4386143	THEY'RE GONNA	-0.4294355
-0.7723183	THEY'VE HAD
-1.166305	THING IN
-1.122444	THING THAT
-1.185171	THING WE
-1.390953	THINGS EVEN
-1.300433	THINGS FOR
-1.258524	THINGS IN
-1.38328	THINGS MUCH
-1.152693	THINK </s>
-1.294204	THINK I	-0.04945571
-1.368342	THINK IT
-1.306776	THINK THAT
-1.536805	THINK WHEN
-1.319723	THINK YOU
-0.8023408	THOUGHT SHOULD
-0.6972281	THREE </s>
-0.6972281	TIME </s>
-0.7612816	TIMES IT
-1.2504	TO A
-2.225825	TO ALLEVIATE
-1.314086	TO BE
-2.225825	TO CHECK
-2.162969	TO DEAL
-1.343493	TO DO	-0.2342465
-2.218075	TO FALL
-2.225825	TO HAPPEN
-2.034843	TO HAVE
-1.958707	TO HER
-2.162969	TO LIKE
-2.218075	TO MAKE
-2.218075	TO NINE
-2.225825	TO PERFORM
-2.218075	TO PLACE
-2.225825	TO RETURN
-2.225825	TO STAY
-1.056253	TO THE
-1.689753	TO TO
-2.225825	TO TRAVELING
-1.385282	TO YOU	-0.4294354
-0.7487503	TODAY AND
-0.4203722	TOGETHER AND
-1.098091	TOO BIG
-0.9934419	TOO THAT
-0.7992165	TOOK CARE
-0.5539277	TOUGH </s>
-1.262346	TOUGH THAT'S
-0.6972281	TOWNS </s>
-0.7631017	TRAVELED SHE
-0.7417486	TRAVELING I
-0.8019784	TRUER STANDARD
-1.270079	TRULY AWARE
-1.166305	TRULY SHE
-1.273437	TRULY WISH
-0.797239	TURNED OUT
-0.8545798	UH </s>
-2.071433	UH AS
-2.219893	UH BIG
-2.177758	UH EXTENDED
-2.219893	UH FINALLY
-2.237458	UH FORTUNATELY
-1.590453	UH I
-2.245907	UH I'M
-1.578749	UH IT'S
-2.245907	UH MIGHT
-2.237458	UH MOTHER
-1.558986	UH MY
-2.245907	UH NOW
-2.219893	UH OUR
-2.245907	UH PARKINSON'S
-2.219893	UH PEOPLE
-2.071433	UH PROBABLY
-2.237458	UH RAN
-2.245907	UH SEVERAL
-1.73735	UH SHE
-2.219893	UH SIX
-1.611738	UH THAT
-1.479735	UH WE
-1.93728	UH WITH
-1.392523	UH YOU	-0.4294354
-0.6310724	UHHUH </s>
-1.632743	UHHUH THAT'D
-1.60429	UHHUH THAT'S
-1.626264	UHHUH UHHUH	-0.4294354
-1.60429	UHHUH YEAH
-1.197036	UM </s>
-1.577308	UM ALL
-0.896873	UM I
-1.4289	UM IN
-1.4289	UM SHE
-1.356683	UM THAT
-1.094164	UNFORTUNATELY AT
-1.099628	UNFORTUNATELY UNFORTUNATELY
-0.8023408	UNITED STATES
-0.7913598	UNLESS IT'S
-0.7952704	UPON IS
-0.9117375	US </s>
-1.099628	US AFTER
-1.191409	USED A
-0.5882357	USED TO
-0.7836428	USUALLY NOT
-0.7649295	VALUES OF
-1.281111	VERY </s>
-1.913457	VERY CAREFUL
-1.913457	VERY COMFORTABLE
-1.913457	VERY DISTURBING
-1.909124	VERY FORTUNATE
-1.267625	VERY GOOD
-1.913457	VERY INDEPENDENT
-1.913457	VERY INTERESTED
-1.909124	VERY SMOOTH
-1.913457	VERY STRENGTHENED
-1.256919	VERY VERY
-1.815733	VERY WELL
-0.7855592	VISITED HER
-0.7855592	VISITING HER
-0.7760604	WALKER FOR
-0.7558668	WANT TO
-2.170474	WAS ABLE
-2.111182	WAS ACTUALLY
-2.16319	WAS AWAY
-2.170474	WAS CONFINED
-2.147985	WAS EVEN
-2.16319	WAS FORTUNATE
-2.16319	WAS GOING
-1.692051	WAS IT
-1.988965	WAS JUST
-2.16319	WAS LUCKY
-2.077255	WAS MORE
-2.170474	WAS PERSONALLY
-2.170474	WAS PRETTY
-2.016448	WAS PROBABLY	-0.4294354
-2.16319	WAS RATHER
-1.512158	WAS REALLY	-0.4294354
-2.16319	WAS SUCH
-1.585325	WAS THAT
-1.749452	WAS THE
-2.16319	WAS TRULY
-0.8921646	WAS VERY
-1.606879	WAS YOU
-1.225553	WASN'T BUT
-1.273437	WASN'T NECESSARILY
-1.247246	WASN'T REALLY
-2.191932	WE AGREED
-2.191932	WE ALWAYS
-2.191932	WE BECOME
-2.185224	WE CHOOSE
-2.171192	WE COULD
-2.185224	WE DIDN'T
-2.185224	WE DON'T
-1.571947	WE FEEL
-2.171192	WE FINALLY
-1.823699	WE HAD
-1.61307	WE I
-1.065721	WE MAY	-0.03626079
-2.185224	WE PUT
-2.191932	WE THOUGHT
-2.171192	WE USED
-1.023318	WE WE
-1.054726	WE WERE	-0.1632431
-2.105446	WE YEAH
-0.7487503	WEEKS AND
-1.227328	WELL </s>
-1.725265	WELL AWARE
-1.389881	WELL I
-1.626703	WELL MY
-1.496993	WELL OF
-1.067451	WELL THEY	-0.4294354
-1.525972	WELL WE
-1.602213	WELL WITH
-1.407259	WERE I
-1.733329	WERE INVOLVED
-1.733329	WERE LUCKY
-1.611345	WERE NOT
-1.672029	WERE REALLY
-1.467948	WERE TO
-0.8069456	WERE VERY
-1.393976	WHAT EVERYTHING
-1.339884	WHAT ONE
-1.339884	WHAT WAS
-1.281974	WHAT WE
-0.8019784	WHAT'S GOING
-1.339666	WHEN IN
-1.333505	WHEN IT
-0.7964241	WHEN SHE
-1.31553	WHEN TO
-1.078803	WHERE THEY
-1.100348	WHERE THEY'VE
-0.5913065	WHETHER IT	-0.4294354
-1.272087	WHETHER OR
-0.4362922	WHICH IS
-0.7452354	WHILE THAT
-1.015715	WHO </s>
-1.252843	WHO IS
-1.166305	WHO UH
-0.797239	WHOLE FAMILY
-0.7452354	WISH THAT
-1.32686	WITH </s>
-1.918114	WITH ALZHEIMER'S
-1.906207	WITH MANY
-1.242134	WITH MY
-1.830817	WITH PROBABLY
-0.9609454	WITH THE
-1.61665	WITH UH
-1.918114	WITH WHAT'S
-0.9800368	WITH WITH	-0.10662
-0.797239	WORK THERE
-0.8023408	WORLD YOU'D
-1.652657	WOULD BE
-1.70974	WOULD DEAL
-1.731458	WOULD DO
-1.734379	WOULD HINGE
-1.725265	WOULD HOW
-1.053767	WOULD NOT	-0.4294354
-1.487748	WOULD SHE
-1.525972	WOULD WE
-0.7932834	YEAH </s>
-1.695144	YEAH BUT
-1.064673	YEAH I
-1.7491	YEAH PROBABLY
-1.156997	YEAH WELL
-1.778819	YEAH YEAH	-0.234231
-1.495346	YEAH YOU
-0.7913598	YEAR JUST
-0.6972281	YEP </s>
-0.9117375	YES </s>
-1.099628	YES ABSOLUTELY
-0.03711345	YOU KNOW	-0.1054859
-2.276098	YOU WERE
-0.8023408	YOU'D EVER

\3-grams:
-0.2003568	BE A GOOD
-0.7357072	HAD A FARM
-0.2000479	NOT A VERY
-1.100818	<s> AND UH
-1.029653	<s> AND UM
-0.950653	CAME AND VISITED
-0.1951597	GONNA BE A
-0.1532329	DAUGHTER CAME AND
-0.6026713	TAKE CARE OF
-0.1630123	HER DAUGHTER CAME
-0.3400185	TO DO IT
-0.1571345	THE EXTENDED FAMILY
-0.1623313	THEY'RE GONNA BE
-0.1716192	THAT'S GREAT </s>
-0.6141106	SHE HAD A
-0.8309726	SHE HAD HER
-0.4881571	NOT HAVE BEEN
-0.3534639	HAD HER OWN
-0.1967345	A HOME ENVIRONMENT
-0.4261318	AND I I
-0.2007594	HOW I WOULD
-0.5940659	I I I
-0.5435216	I I THINK
-0.5127283	KNOW I MEAN
-0.287074	MEAN I I
-0.6583534	THINK I THINK
-0.242808	AND IT WAS
-0.136595	WHETHER IT WAS
-1.37121	YOU KNOW FOR
-1.529792	YOU KNOW I
-1.349145	YOU KNOW IN
-1.435689	YOU KNOW IT'S
-1.892303	YOU KNOW LIKE
-1.468846	YOU KNOW PERHAPS
-1.442121	YOU KNOW REALLY
-1.299752	YOU KNOW THAT
-1.471536	YOU KNOW WHETHER
-0.6293329	SOMETHING LIKE THAT
-0.2003297	A LOT OF
-0.9551049	WE MAY NOT
-1.256364	I MEAN I
-0.9549626	I MEAN IT
-1.340275	I MEAN WE
-0.1864898	<s> MY MOTHER
-0.1990943	COULD NOT TAKE
-0.1779734	WOULD NOT HAVE
-0.04606481	A NURSING HOME
-0.871398	LOT OF THE
-0.3561696	ONE OF THE
-0.2005112	STANDARD OF LIVING
-0.4819218	PROBABLY ONE OF
-0.3544579	FOR OUR FAMILY
-0.1748911	WAS PROBABLY ONE
-0.1951336	WAS REALLY NOT
-0.1170178	NOT TAKE CARE
-0.3626253	<s> THAT'S GREAT
-0.6511783	IN THE UNITED
-0.1654334	WELL THEY HAD
-1.2873	I THINK I
-0.9622145	I THINK IT
-0.4983733	I THINK THAT
-0.544489	HAD TO BE
-0.1619649	<s> UHHUH </s>
-1.154064	<s> UHHUH UHHUH
-0.1457085	UHHUH UHHUH </s>
-0.9521496	AND UM </s>
-0.6050197	THE UNITED STATES
-0.595433	AND VISITED HER
-1.45116	IT WAS JUST
-0.9483747	IT WAS PROBABLY
-0.4969507	SHE WAS TRULY
-0.4867757	WE WERE LUCKY
-0.5234593	WITH WITH WITH
-0.4342981	<s> YEAH </s>
-1.438361	<s> YEAH YEAH
-0.3396201	YEAH YEAH WELL
-0.7185761	<s> YES </s>
-0.02741074	<s> YOU KNOW
-0.03296313	AND YOU KNOW
-0.01343921	JUST YOU KNOW
-0.01343921	REALLY YOU KNOW
-0.03296313	THAT YOU KNOW
-0.01343921	TO YOU KNOW
-0.01343921	UH YOU KNOW

\end\
